booster[0]:
0:[2 <49] yes=1,no=2,missing=1
	1:[2 <1] yes=3,no=4,missing=3
		3:leaf=-0.25
		4:leaf=47.9251747
	2:leaf=83.284935
booster[1]:
0:[2 <137] yes=1,no=2,missing=1
	1:[2 <49] yes=3,no=4,missing=3
		3:[2 <27] yes=7,no=8,missing=7
			7:[2 <21] yes=13,no=14,missing=13
				13:[2 <1] yes=21,no=22,missing=21
					21:leaf=-0.125
					22:[2 <15] yes=27,no=28,missing=27
						27:leaf=-5.80209017
						28:leaf=-2.46315575
				14:[2 <25] yes=23,no=24,missing=23
					23:[2 <23] yes=29,no=30,missing=29
						29:leaf=-0.970237732
						30:leaf=-0.16648674
					24:leaf=0.61161232
			8:[2 <35] yes=15,no=16,missing=15
				15:leaf=3.89486003
				16:leaf=10.7213097
		4:[2 <75] yes=9,no=10,missing=9
			9:leaf=-11.224082
			10:[2 <99] yes=17,no=18,missing=17
				17:leaf=-4.38713932
				18:[2 <125] yes=25,no=26,missing=25
					25:leaf=-1.84878981
					26:[2 <133] yes=31,no=32,missing=31
						31:leaf=-0.464527905
						32:[2 <135] yes=33,no=34,missing=33
							33:leaf=-0.0808181763
							34:leaf=-0.000617980957
	2:[2 <239] yes=5,no=6,missing=5
		5:[2 <155] yes=11,no=12,missing=11
			11:[2 <145] yes=19,no=20,missing=19
				19:leaf=0.268092334
				20:leaf=0.837804139
			12:leaf=2.0954144
		6:leaf=3.69924331
booster[2]:
0:[2 <63] yes=1,no=2,missing=1
	1:[2 <49] yes=3,no=4,missing=3
		3:[2 <41] yes=7,no=8,missing=7
			7:[2 <9] yes=15,no=16,missing=15
				15:[2 <1] yes=23,no=24,missing=23
					23:leaf=-0.0625
					24:[2 <7] yes=31,no=32,missing=31
						31:leaf=-1.69908905
						32:leaf=-0.394441605
				16:[2 <35] yes=25,no=26,missing=25
					25:[2 <31] yes=33,no=34,missing=33
						33:[2 <15] yes=41,no=42,missing=41
							41:leaf=0.445786476
							42:leaf=-0.424849629
						34:leaf=1.57674408
					26:[2 <39] yes=35,no=36,missing=35
						35:leaf=-1.18812311
						36:leaf=0.100257874
			8:[2 <43] yes=17,no=18,missing=17
				17:leaf=0.776058197
				18:leaf=3.13326073
		4:[2 <57] yes=9,no=10,missing=9
			9:leaf=-4.12554169
			10:[2 <61] yes=19,no=20,missing=19
				19:leaf=-1.24000037
				20:leaf=-0.230926514
	2:[2 <75] yes=5,no=6,missing=5
		5:[2 <67] yes=11,no=12,missing=11
			11:leaf=0.536165893
			12:leaf=2.3953979
		6:[2 <85] yes=13,no=14,missing=13
			13:leaf=-1.23217905
			14:[2 <289] yes=21,no=22,missing=21
				21:[2 <239] yes=27,no=28,missing=27
					27:[2 <215] yes=37,no=38,missing=37
						37:[2 <99] yes=43,no=44,missing=43
							43:leaf=0.375740051
							44:leaf=-0.0715247989
						38:[2 <223] yes=45,no=46,missing=45
							45:leaf=0.201242059
							46:leaf=0.446712911
					28:[2 <265] yes=39,no=40,missing=39
						39:[2 <259] yes=47,no=48,missing=47
							47:leaf=-0.589578092
							48:leaf=-0.261932373
						40:[2 <277] yes=49,no=50,missing=49
							49:leaf=-0.108221874
							50:leaf=0.0607485101
				22:[2 <345] yes=29,no=30,missing=29
					29:leaf=0.24334006
					30:leaf=0.500876546
booster[3]:
0:[2 <11] yes=1,no=2,missing=1
	1:[2 <1] yes=3,no=4,missing=3
		3:leaf=-0.03125
		4:[2 <5] yes=7,no=8,missing=7
			7:leaf=-0.62029773
			8:[2 <7] yes=13,no=14,missing=13
				13:leaf=0.0809020996
				14:leaf=-0.310038239
	2:[2 <49] yes=5,no=6,missing=5
		5:[2 <45] yes=9,no=10,missing=9
			9:[2 <23] yes=15,no=16,missing=15
				15:[2 <15] yes=19,no=20,missing=19
					19:[2 <13] yes=27,no=28,missing=27
						27:leaf=0.0813655853
						28:leaf=0.4093647
					20:[2 <19] yes=29,no=30,missing=29
						29:leaf=-0.470647186
						30:[2 <21] yes=43,no=44,missing=43
							43:leaf=0.111665726
							44:leaf=-0.272693634
				16:[2 <35] yes=21,no=22,missing=21
					21:[2 <29] yes=31,no=32,missing=31
						31:[2 <27] yes=45,no=46,missing=45
							45:leaf=0.431607574
							46:leaf=-0.357791901
						32:leaf=0.576664925
					22:[2 <37] yes=33,no=34,missing=33
						33:leaf=-0.621582031
						34:[2 <43] yes=47,no=48,missing=47
							47:leaf=0.232838631
							48:leaf=-0.113273621
			10:leaf=1.11993408
		6:[2 <53] yes=11,no=12,missing=11
			11:leaf=-1.43593848
			12:[2 <65] yes=17,no=18,missing=17
				17:[2 <57] yes=23,no=24,missing=23
					23:[2 <55] yes=35,no=36,missing=35
						35:leaf=-0.231006622
						36:leaf=0.322143555
					24:[2 <59] yes=37,no=38,missing=37
						37:leaf=-0.56817627
						38:leaf=-0.119773865
				18:[2 <75] yes=25,no=26,missing=25
					25:[2 <71] yes=39,no=40,missing=39
						39:[2 <67] yes=49,no=50,missing=49
							49:leaf=0.340343475
							50:leaf=-0.0430348702
						40:leaf=0.841496766
					26:[2 <91] yes=41,no=42,missing=41
						41:[2 <79] yes=51,no=52,missing=51
							51:leaf=-0.547744751
							52:leaf=-0.192280367
						42:[2 <99] yes=53,no=54,missing=53
							53:leaf=0.426550299
							54:leaf=0.00319475122
booster[4]:
0:[2 <115] yes=1,no=2,missing=1
	1:[2 <99] yes=3,no=4,missing=3
		3:[2 <95] yes=7,no=8,missing=7
			7:[2 <85] yes=15,no=16,missing=15
				15:[2 <69] yes=23,no=24,missing=23
					23:[2 <49] yes=33,no=34,missing=33
						33:[2 <47] yes=43,no=44,missing=43
							43:leaf=-0.0367295854
							44:leaf=0.582508087
						34:[2 <51] yes=45,no=46,missing=45
							45:leaf=-0.640235901
							46:leaf=-0.078415677
					24:[2 <75] yes=35,no=36,missing=35
						35:leaf=0.292669296
						36:[2 <81] yes=47,no=48,missing=47
							47:leaf=-0.130344391
							48:leaf=0.320510864
				16:[2 <89] yes=25,no=26,missing=25
					25:leaf=-0.37680307
					26:[2 <93] yes=37,no=38,missing=37
						37:[2 <91] yes=49,no=50,missing=49
							49:leaf=-0.0248756409
							50:leaf=-0.165145874
						38:leaf=-0.00689315796
			8:leaf=0.256874084
		4:[2 <107] yes=9,no=10,missing=9
			9:leaf=-0.455410779
			10:[2 <113] yes=17,no=18,missing=17
				17:leaf=-0.153734207
				18:leaf=-0.0180549622
	2:[2 <125] yes=5,no=6,missing=5
		5:[2 <119] yes=11,no=12,missing=11
			11:leaf=0.0987243652
			12:leaf=0.417863846
		6:[2 <155] yes=13,no=14,missing=13
			13:[2 <129] yes=19,no=20,missing=19
				19:leaf=-0.161750793
				20:[2 <149] yes=27,no=28,missing=27
					27:[2 <145] yes=39,no=40,missing=39
						39:[2 <141] yes=51,no=52,missing=51
							51:leaf=0.0613697581
							52:leaf=0.153701782
						40:[2 <147] yes=53,no=54,missing=53
							53:leaf=-0.0472564697
							54:leaf=0.0378952026
					28:leaf=0.299539566
			14:[2 <163] yes=21,no=22,missing=21
				21:[2 <161] yes=29,no=30,missing=29
					29:leaf=-0.28651619
					30:leaf=-0.0665092468
				22:[2 <353] yes=31,no=32,missing=31
					31:[2 <181] yes=41,no=42,missing=41
						41:leaf=-0.0690292343
						42:[2 <239] yes=55,no=56,missing=55
							55:leaf=0.0565884896
							56:leaf=-0.0171800815
					32:leaf=0.129339606
booster[5]:
0:[2 <3] yes=1,no=2,missing=1
	1:[2 <1] yes=3,no=4,missing=3
		3:leaf=0.00273979269
		4:leaf=-0.309486389
	2:[2 <49] yes=5,no=6,missing=5
		5:[2 <41] yes=7,no=8,missing=7
			7:[2 <35] yes=11,no=12,missing=11
				11:[2 <33] yes=15,no=16,missing=15
					15:[2 <31] yes=23,no=24,missing=23
						23:[2 <25] yes=31,no=32,missing=31
							31:leaf=-0.00865968037
							32:leaf=0.127624512
						24:leaf=-0.212507248
					16:leaf=0.460943222
				12:[2 <37] yes=17,no=18,missing=17
					17:leaf=-0.292427063
					18:leaf=-0.0789744034
			8:leaf=0.215511322
		6:[2 <51] yes=9,no=10,missing=9
			9:leaf=-0.32011795
			10:[2 <271] yes=13,no=14,missing=13
				13:[2 <239] yes=19,no=20,missing=19
					19:[2 <233] yes=25,no=26,missing=25
						25:[2 <223] yes=33,no=34,missing=33
							33:leaf=-0.000153903296
							34:leaf=-0.0629247054
						26:leaf=0.0864906311
					20:[2 <247] yes=27,no=28,missing=27
						27:leaf=-0.157490537
						28:[2 <259] yes=35,no=36,missing=35
							35:leaf=0.0482439324
							36:leaf=-0.0568400808
				14:[2 <357] yes=21,no=22,missing=21
					21:[2 <345] yes=29,no=30,missing=29
						29:[2 <323] yes=37,no=38,missing=37
							37:leaf=0.0160160773
							38:leaf=0.0417302437
						30:[2 <349] yes=39,no=40,missing=39
							39:leaf=-0.0485788994
							40:leaf=0.000155639646
					22:leaf=0.0572052002
booster[6]:
0:[2 <3] yes=1,no=2,missing=1
	1:[2 <1] yes=3,no=4,missing=3
		3:leaf=0.00136989634
		4:leaf=-0.154743195
	2:[2 <15] yes=5,no=6,missing=5
		5:[2 <11] yes=7,no=8,missing=7
			7:[2 <7] yes=11,no=12,missing=11
				11:leaf=0.069025673
				12:[2 <9] yes=15,no=16,missing=15
					15:leaf=-0.0195083618
					16:leaf=-0.0901222229
			8:leaf=0.193834946
		6:[2 <17] yes=9,no=10,missing=9
			9:leaf=-0.246168137
			10:[2 <27] yes=13,no=14,missing=13
				13:[2 <25] yes=17,no=18,missing=17
					17:[2 <21] yes=21,no=22,missing=21
						21:leaf=0.0898386613
						22:leaf=-0.118387856
					18:leaf=0.256978989
				14:[2 <29] yes=19,no=20,missing=19
					19:leaf=-0.224344254
					20:[2 <35] yes=23,no=24,missing=23
						23:[2 <33] yes=25,no=26,missing=25
							25:leaf=-0.0500500984
							26:leaf=0.230470657
						24:[2 <59] yes=27,no=28,missing=27
							27:leaf=-0.0610953122
							28:leaf=0.00159233494
booster[7]:
0:[2 <85] yes=1,no=2,missing=1
	1:[2 <77] yes=3,no=4,missing=3
		3:[2 <75] yes=7,no=8,missing=7
			7:[2 <73] yes=13,no=14,missing=13
				13:[2 <67] yes=21,no=22,missing=21
					21:[2 <65] yes=31,no=32,missing=31
						31:[2 <57] yes=47,no=48,missing=47
							47:leaf=0.010187163
							48:leaf=-0.0634735078
						32:leaf=0.208656311
					22:[2 <69] yes=33,no=34,missing=33
						33:leaf=-0.147621155
						34:[2 <71] yes=49,no=50,missing=49
							49:leaf=0.0175361633
							50:leaf=-0.0930328369
				14:leaf=0.219665527
			8:leaf=-0.197536469
		4:leaf=0.115605161
	2:[2 <103] yes=5,no=6,missing=5
		5:[2 <99] yes=9,no=10,missing=9
			9:[2 <93] yes=15,no=16,missing=15
				15:[2 <87] yes=23,no=24,missing=23
					23:leaf=-0.172748566
					24:[2 <91] yes=35,no=36,missing=35
						35:leaf=-0.0201721191
						36:leaf=-0.0832939148
				16:[2 <97] yes=25,no=26,missing=25
					25:[2 <95] yes=37,no=38,missing=37
						37:leaf=-0.00416564941
						38:leaf=0.00329589844
					26:leaf=0.123699188
			10:leaf=-0.199661255
		6:[2 <155] yes=11,no=12,missing=11
			11:[2 <151] yes=17,no=18,missing=17
				17:[2 <125] yes=27,no=28,missing=27
					27:[2 <121] yes=39,no=40,missing=39
						39:[2 <107] yes=51,no=52,missing=51
							51:leaf=0.0459391288
							52:leaf=-0.0163555145
						40:leaf=0.154220581
					28:[2 <127] yes=41,no=42,missing=41
						41:leaf=-0.0984840393
						42:[2 <133] yes=53,no=54,missing=53
							53:leaf=0.0501899719
							54:leaf=-0.00443344098
				18:leaf=0.120803833
			12:[2 <159] yes=19,no=20,missing=19
				19:leaf=-0.111099243
				20:[2 <203] yes=29,no=30,missing=29
					29:[2 <181] yes=43,no=44,missing=43
						43:[2 <161] yes=55,no=56,missing=55
							55:leaf=0.0212249756
							56:leaf=-0.0136316475
						44:[2 <201] yes=57,no=58,missing=57
							57:leaf=-0.0376975313
							58:leaf=-0.00657272339
					30:[2 <215] yes=45,no=46,missing=45
						45:[2 <207] yes=59,no=60,missing=59
							59:leaf=0.0195668545
							60:leaf=0.0941406265
						46:[2 <253] yes=61,no=62,missing=61
							61:leaf=-0.0174926762
							62:leaf=0.00218616822
booster[8]:
0:[2 <13] yes=1,no=2,missing=1
	1:[2 <1] yes=3,no=4,missing=3
		3:leaf=-0.00440863334
		4:[2 <3] yes=7,no=8,missing=7
			7:leaf=-0.0824661255
			8:[2 <7] yes=11,no=12,missing=11
				11:[2 <5] yes=15,no=16,missing=15
					15:leaf=0.000785827637
					16:leaf=0.0235366821
				12:[2 <9] yes=17,no=18,missing=17
					17:leaf=-0.0148487091
					18:leaf=-0.0591952018
	2:[2 <15] yes=5,no=6,missing=5
		5:leaf=0.125364304
		6:[2 <17] yes=9,no=10,missing=9
			9:leaf=-0.12817955
			10:[2 <67] yes=13,no=14,missing=13
				13:[2 <59] yes=19,no=20,missing=19
					19:[2 <57] yes=23,no=24,missing=23
						23:[2 <55] yes=29,no=30,missing=29
							29:leaf=-0.00517253857
							30:leaf=0.225811005
						24:leaf=-0.182518005
					20:leaf=0.102046207
				14:[2 <101] yes=21,no=22,missing=21
					21:[2 <99] yes=25,no=26,missing=25
						25:[2 <97] yes=31,no=32,missing=31
							31:leaf=-0.0226554871
							32:leaf=0.0618476868
						26:leaf=-0.121940613
					22:[2 <125] yes=27,no=28,missing=27
						27:[2 <123] yes=33,no=34,missing=33
							33:leaf=0.00345675158
							34:leaf=0.0932807922
						28:[2 <131] yes=35,no=36,missing=35
							35:leaf=-0.0413799286
							36:leaf=0.00158671674
booster[9]:
0:[2 <39] yes=1,no=2,missing=1
	1:[2 <35] yes=3,no=4,missing=3
		3:[2 <33] yes=7,no=8,missing=7
			7:[2 <27] yes=15,no=16,missing=15
				15:[2 <25] yes=19,no=20,missing=19
					19:[2 <21] yes=25,no=26,missing=25
						25:[2 <17] yes=33,no=34,missing=33
							33:leaf=-0.0139414584
							34:leaf=0.0266011562
						26:[2 <23] yes=35,no=36,missing=35
							35:leaf=-0.0569667816
							36:leaf=-0.00724220276
					20:leaf=0.125982285
				16:[2 <29] yes=21,no=22,missing=21
					21:leaf=-0.114681244
					22:[2 <31] yes=27,no=28,missing=27
						27:leaf=0.0536937714
						28:leaf=-0.0837364197
			8:leaf=0.112728119
		4:[2 <37] yes=9,no=10,missing=9
			9:leaf=-0.118173599
			10:leaf=-0.00300788879
	2:[2 <43] yes=5,no=6,missing=5
		5:[2 <41] yes=11,no=12,missing=11
			11:leaf=0.0196018219
			12:leaf=0.210258484
		6:[2 <47] yes=13,no=14,missing=13
			13:leaf=-0.134587601
			14:[2 <49] yes=17,no=18,missing=17
				17:leaf=0.211540222
				18:[2 <55] yes=23,no=24,missing=23
					23:[2 <51] yes=29,no=30,missing=29
						29:leaf=-0.132015228
						30:[2 <53] yes=37,no=38,missing=37
							37:leaf=-0.0104103088
							38:leaf=-0.0481758118
					24:[2 <57] yes=31,no=32,missing=31
						31:leaf=0.112903595
						32:[2 <59] yes=39,no=40,missing=39
							39:leaf=-0.0912590027
							40:leaf=0.000501582515
booster[10]:
0:[2 <289] yes=1,no=2,missing=1
	1:[2 <283] yes=3,no=4,missing=3
		3:[2 <277] yes=7,no=8,missing=7
			7:[2 <269] yes=11,no=12,missing=11
				11:[2 <259] yes=17,no=18,missing=17
					17:[2 <255] yes=25,no=26,missing=25
						25:[2 <239] yes=35,no=36,missing=35
							35:leaf=0.00313561736
							36:leaf=-0.0210011806
						26:leaf=0.0529454537
					18:[2 <263] yes=27,no=28,missing=27
						27:leaf=-0.0335973091
						28:[2 <265] yes=37,no=38,missing=37
							37:leaf=0.0168533325
							38:leaf=-0.02000173
				12:[2 <273] yes=19,no=20,missing=19
					19:[2 <271] yes=29,no=30,missing=29
						29:leaf=0.0174980164
						30:leaf=-0.00107955933
					20:leaf=0.0300292969
			8:[2 <281] yes=13,no=14,missing=13
				13:leaf=-0.0411834717
				14:leaf=0.00538635254
		4:leaf=0.0315303802
	2:[2 <295] yes=5,no=6,missing=5
		5:leaf=-0.0549888611
		6:[2 <359] yes=9,no=10,missing=9
			9:[2 <353] yes=15,no=16,missing=15
				15:[2 <351] yes=21,no=22,missing=21
					21:[2 <345] yes=31,no=32,missing=31
						31:[2 <339] yes=39,no=40,missing=39
							39:leaf=-0.00518666161
							40:leaf=0.0195960999
						32:[2 <347] yes=41,no=42,missing=41
							41:leaf=-0.0285339355
							42:leaf=-0.00398763036
					22:leaf=0.0198516846
				16:[2 <355] yes=23,no=24,missing=23
					23:leaf=-0.0267601013
					24:[2 <357] yes=33,no=34,missing=33
						33:leaf=-0.000408172607
						34:leaf=-0.00298690796
			10:leaf=0.0257148743
booster[11]:
0:[2 <3] yes=1,no=2,missing=1
	1:[2 <1] yes=3,no=4,missing=3
		3:leaf=0.00319860387
		4:leaf=-0.0358295441
	2:[2 <15] yes=5,no=6,missing=5
		5:[2 <13] yes=7,no=8,missing=7
			7:[2 <7] yes=11,no=12,missing=11
				11:leaf=0.0153121948
				12:[2 <9] yes=15,no=16,missing=15
					15:leaf=-0.00202178955
					16:[2 <11] yes=21,no=22,missing=21
						21:leaf=-0.0151538849
						22:leaf=-0.00363540649
			8:leaf=0.0680847168
		6:[2 <17] yes=9,no=10,missing=9
			9:leaf=-0.0586872101
			10:[2 <49] yes=13,no=14,missing=13
				13:[2 <47] yes=17,no=18,missing=17
					17:[2 <43] yes=23,no=24,missing=23
						23:[2 <41] yes=29,no=30,missing=29
							29:leaf=-0.00637113117
							30:leaf=0.103561401
						24:leaf=-0.0469538383
					18:leaf=0.104202271
				14:[2 <55] yes=19,no=20,missing=19
					19:[2 <51] yes=25,no=26,missing=25
						25:leaf=-0.0675773621
						26:[2 <53] yes=31,no=32,missing=31
							31:leaf=-0.00677108765
							32:leaf=-0.0256538391
					20:[2 <57] yes=27,no=28,missing=27
						27:leaf=0.0548858643
						28:[2 <59] yes=33,no=34,missing=33
							33:leaf=-0.0471954346
							34:leaf=0.000117000782
booster[12]:
0:[2 <85] yes=1,no=2,missing=1
	1:[2 <83] yes=3,no=4,missing=3
		3:[2 <75] yes=7,no=8,missing=7
			7:[2 <73] yes=11,no=12,missing=11
				11:[2 <67] yes=19,no=20,missing=19
					19:[2 <65] yes=29,no=30,missing=29
						29:[2 <49] yes=41,no=42,missing=41
							41:leaf=0.00483461469
							42:leaf=-0.0120146014
						30:leaf=0.0514297485
					20:[2 <69] yes=31,no=32,missing=31
						31:leaf=-0.0643615723
						32:[2 <71] yes=43,no=44,missing=43
							43:leaf=0.0182189941
							44:leaf=-0.0370674133
				12:leaf=0.119281769
			8:[2 <77] yes=13,no=14,missing=13
				13:leaf=-0.0893173218
				14:[2 <81] yes=21,no=22,missing=21
					21:[2 <79] yes=33,no=34,missing=33
						33:leaf=0.00421142578
						34:leaf=0.0292854309
					22:leaf=-0.0406494141
		4:leaf=0.102752686
	2:[2 <87] yes=5,no=6,missing=5
		5:leaf=-0.0769195557
		6:[2 <111] yes=9,no=10,missing=9
			9:[2 <107] yes=15,no=16,missing=15
				15:[2 <105] yes=23,no=24,missing=23
					23:[2 <99] yes=35,no=36,missing=35
						35:[2 <93] yes=45,no=46,missing=45
							45:leaf=-0.0116920471
							46:leaf=0.0237579346
						36:[2 <101] yes=47,no=48,missing=47
							47:leaf=-0.0628471375
							48:leaf=0.00420633936
					24:leaf=0.0279579163
				16:leaf=-0.0535837822
			10:[2 <119] yes=17,no=18,missing=17
				17:[2 <117] yes=25,no=26,missing=25
					25:[2 <113] yes=37,no=38,missing=37
						37:leaf=0.0150642395
						38:leaf=-0.00719451904
					26:leaf=0.0626831055
				18:[2 <123] yes=27,no=28,missing=27
					27:leaf=-0.0265070591
					28:[2 <125] yes=39,no=40,missing=39
						39:leaf=0.0447616577
						40:[2 <127] yes=49,no=50,missing=49
							49:leaf=-0.0304298401
							50:leaf=0.000586299575
booster[13]:
0:[2 <39] yes=1,no=2,missing=1
	1:[2 <35] yes=3,no=4,missing=3
		3:[2 <33] yes=7,no=8,missing=7
			7:[2 <27] yes=15,no=16,missing=15
				15:[2 <25] yes=19,no=20,missing=19
					19:[2 <15] yes=27,no=28,missing=27
						27:[2 <13] yes=33,no=34,missing=33
							33:leaf=-0.00899594836
							34:leaf=0.0316257477
						28:[2 <17] yes=35,no=36,missing=35
							35:leaf=-0.0317592621
							36:leaf=-0.00879898109
					20:leaf=0.0621929169
				16:[2 <29] yes=21,no=22,missing=21
					21:leaf=-0.058139801
					22:[2 <31] yes=29,no=30,missing=29
						29:leaf=0.0260486603
						30:leaf=-0.0426673889
			8:leaf=0.0555648804
		4:[2 <37] yes=9,no=10,missing=9
			9:leaf=-0.0598869324
			10:leaf=-0.00230407715
	2:[2 <43] yes=5,no=6,missing=5
		5:[2 <41] yes=11,no=12,missing=11
			11:leaf=0.0090007782
			12:leaf=0.04936409
		6:[2 <45] yes=13,no=14,missing=13
			13:leaf=-0.0312023163
			14:[2 <49] yes=17,no=18,missing=17
				17:[2 <47] yes=23,no=24,missing=23
					23:leaf=0.00289344788
					24:leaf=0.0496826172
				18:[2 <51] yes=25,no=26,missing=25
					25:leaf=-0.0277824402
					26:[2 <75] yes=31,no=32,missing=31
						31:[2 <73] yes=37,no=38,missing=37
							37:leaf=0.000981648802
							38:leaf=0.0596427917
						32:[2 <77] yes=39,no=40,missing=39
							39:leaf=-0.0446586609
							40:leaf=3.70265734e-05
booster[14]:
0:[2 <155] yes=1,no=2,missing=1
	1:[2 <153] yes=3,no=4,missing=3
		3:[2 <149] yes=7,no=8,missing=7
			7:[2 <139] yes=11,no=12,missing=11
				11:[2 <133] yes=17,no=18,missing=17
					17:[2 <131] yes=27,no=28,missing=27
						27:[2 <85] yes=39,no=40,missing=39
							39:leaf=0.0028684237
							40:leaf=-0.00352446246
						28:leaf=0.0556259155
					18:leaf=-0.0398025513
				12:[2 <145] yes=19,no=20,missing=19
					19:[2 <143] yes=29,no=30,missing=29
						29:leaf=0.0163294468
						30:leaf=0.0680618286
					20:[2 <147] yes=31,no=32,missing=31
						31:leaf=-0.0251159668
						32:leaf=0.0174598694
			8:leaf=-0.0329971313
		4:leaf=0.069568634
	2:[2 <157] yes=5,no=6,missing=5
		5:leaf=-0.0693588257
		6:[2 <229] yes=9,no=10,missing=9
			9:[2 <223] yes=13,no=14,missing=13
				13:[2 <211] yes=21,no=22,missing=21
					21:[2 <161] yes=33,no=34,missing=33
						33:leaf=0.0103149414
						34:[2 <163] yes=41,no=42,missing=41
							41:leaf=-0.0301437378
							42:leaf=-0.00589904794
					22:[2 <215] yes=35,no=36,missing=35
						35:leaf=0.0341644287
						36:[2 <219] yes=43,no=44,missing=43
							43:leaf=-0.0249557495
							44:leaf=0.0257746372
				14:[2 <227] yes=23,no=24,missing=23
					23:leaf=-0.0450261422
					24:leaf=-0.00264358521
			10:[2 <239] yes=15,no=16,missing=15
				15:leaf=0.040566761
				16:[2 <243] yes=25,no=26,missing=25
					25:leaf=-0.0443318672
					26:[2 <247] yes=37,no=38,missing=37
						37:[2 <245] yes=45,no=46,missing=45
							45:leaf=0.00882720947
							46:leaf=0.047077179
						38:[2 <251] yes=47,no=48,missing=47
							47:leaf=-0.0230229702
							48:leaf=0.000443458557
booster[15]:
0:[2 <39] yes=1,no=2,missing=1
	1:[2 <35] yes=3,no=4,missing=3
		3:[2 <33] yes=7,no=8,missing=7
			7:[2 <27] yes=15,no=16,missing=15
				15:[2 <25] yes=19,no=20,missing=19
					19:[2 <21] yes=27,no=28,missing=27
						27:[2 <19] yes=35,no=36,missing=35
							35:leaf=-0.00360127422
							36:leaf=0.0199661255
						28:[2 <23] yes=37,no=38,missing=37
							37:leaf=-0.0263156891
							38:leaf=-0.00145339966
					20:leaf=0.0296630859
				16:[2 <29] yes=21,no=22,missing=21
					21:leaf=-0.0305042267
					22:[2 <31] yes=29,no=30,missing=29
						29:leaf=0.0115890503
						30:leaf=-0.0227680206
			8:leaf=0.026348114
		4:[2 <37] yes=9,no=10,missing=9
			9:leaf=-0.0313777924
			10:leaf=-0.00258636475
	2:[2 <43] yes=5,no=6,missing=5
		5:[2 <41] yes=11,no=12,missing=11
			11:leaf=0.0030670166
			12:leaf=0.0232467651
		6:[2 <45] yes=13,no=14,missing=13
			13:leaf=-0.017036438
			14:[2 <155] yes=17,no=18,missing=17
				17:[2 <153] yes=23,no=24,missing=23
					23:[2 <109] yes=31,no=32,missing=31
						31:[2 <107] yes=39,no=40,missing=39
							39:leaf=0.000675201416
							40:leaf=-0.0274047852
						32:[2 <145] yes=41,no=42,missing=41
							41:leaf=0.0109843202
							42:leaf=-0.00813140906
					24:leaf=0.0347862244
				18:[2 <157] yes=25,no=26,missing=25
					25:leaf=-0.0346794128
					26:[2 <277] yes=33,no=34,missing=33
						33:[2 <243] yes=43,no=44,missing=43
							43:leaf=-0.00095887616
							44:leaf=0.00805494562
						34:[2 <279] yes=45,no=46,missing=45
							45:leaf=-0.0208625793
							46:leaf=-0.00166393467
booster[16]:
0:[2 <359] yes=1,no=2,missing=1
	1:[2 <259] yes=3,no=4,missing=3
		3:[2 <251] yes=5,no=6,missing=5
			5:[2 <247] yes=9,no=10,missing=9
				9:[2 <245] yes=15,no=16,missing=15
					15:[2 <239] yes=25,no=26,missing=25
						25:[2 <237] yes=35,no=36,missing=35
							35:leaf=-0.00044140892
							36:leaf=0.0244445801
						26:[2 <241] yes=37,no=38,missing=37
							37:leaf=-0.0220756531
							38:leaf=0.000839233398
					16:leaf=0.0195083618
				10:[2 <249] yes=17,no=18,missing=17
					17:leaf=-0.0195083618
					18:leaf=-5.7220459e-05
			6:leaf=0.016163636
		4:[2 <267] yes=7,no=8,missing=7
			7:[2 <261] yes=11,no=12,missing=11
				11:leaf=-0.0260162354
				12:[2 <265] yes=19,no=20,missing=19
					19:[2 <263] yes=27,no=28,missing=27
						27:leaf=-1.90734863e-05
						28:leaf=0.00380706787
					20:leaf=-0.022518158
			8:[2 <323] yes=13,no=14,missing=13
				13:[2 <303] yes=21,no=22,missing=21
					21:[2 <289] yes=29,no=30,missing=29
						29:[2 <281] yes=39,no=40,missing=39
							39:leaf=-0.000621795654
							40:leaf=0.00776672363
						30:[2 <293] yes=41,no=42,missing=41
							41:leaf=-0.0208689366
							42:leaf=-0.00117619836
					22:[2 <309] yes=31,no=32,missing=31
						31:leaf=0.00318717957
						32:leaf=0.0080909729
				14:[2 <337] yes=23,no=24,missing=23
					23:leaf=-0.00828552246
					24:[2 <345] yes=33,no=34,missing=33
						33:[2 <343] yes=43,no=44,missing=43
							43:leaf=0.00115776062
							44:leaf=0.0133743286
						34:[2 <347] yes=45,no=46,missing=45
							45:leaf=-0.0140266418
							46:leaf=-0.00163051055
	2:leaf=0.0130958557
booster[17]:
0:[2 <61] yes=1,no=2,missing=1
	1:[2 <59] yes=3,no=4,missing=3
		3:[2 <57] yes=7,no=8,missing=7
			7:[2 <55] yes=11,no=12,missing=11
				11:[2 <49] yes=15,no=16,missing=15
					15:[2 <47] yes=19,no=20,missing=19
						19:[2 <15] yes=27,no=28,missing=27
							27:leaf=0.00355834467
							28:leaf=-0.00257806224
						20:leaf=0.0232925415
					16:[2 <51] yes=21,no=22,missing=21
						21:leaf=-0.0154418945
						22:[2 <53] yes=29,no=30,missing=29
							29:leaf=0.000579833984
							30:leaf=-0.00885772705
				12:leaf=0.0314064026
			8:leaf=-0.0196342468
		4:leaf=0.0293540955
	2:[2 <63] yes=5,no=6,missing=5
		5:leaf=-0.034286499
		6:[2 <67] yes=9,no=10,missing=9
			9:leaf=0.0217259731
			10:[2 <69] yes=13,no=14,missing=13
				13:leaf=-0.0342254639
				14:[2 <85] yes=17,no=18,missing=17
					17:[2 <83] yes=23,no=24,missing=23
						23:[2 <75] yes=31,no=32,missing=31
							31:leaf=0.00737762451
							32:leaf=-0.0128677366
						24:leaf=0.0498046875
					18:[2 <87] yes=25,no=26,missing=25
						25:leaf=-0.0368347168
						26:[2 <91] yes=33,no=34,missing=33
							33:leaf=0.0158335362
							34:leaf=-0.000456305104
booster[18]:
0:[2 <3] yes=1,no=2,missing=1
	1:[2 <1] yes=3,no=4,missing=3
		3:leaf=0.00248792605
		4:leaf=-0.0170269012
	2:[2 <61] yes=5,no=6,missing=5
		5:[2 <59] yes=7,no=8,missing=7
			7:[2 <57] yes=11,no=12,missing=11
				11:[2 <55] yes=17,no=18,missing=17
					17:[2 <49] yes=23,no=24,missing=23
						23:[2 <39] yes=29,no=30,missing=29
							29:leaf=0.000492296705
							30:leaf=0.00733375549
						24:[2 <51] yes=31,no=32,missing=31
							31:leaf=-0.00772094727
							32:leaf=-0.00275929761
					18:leaf=0.0157051086
				12:leaf=-0.00981521606
			8:leaf=0.0146751404
		6:[2 <73] yes=9,no=10,missing=9
			9:[2 <67] yes=13,no=14,missing=13
				13:[2 <65] yes=19,no=20,missing=19
					19:[2 <63] yes=25,no=26,missing=25
						25:leaf=-0.0171432495
						26:leaf=-0.00194549561
					20:leaf=0.0128059387
				14:leaf=-0.0190029144
			10:[2 <75] yes=15,no=16,missing=15
				15:leaf=0.0245819092
				16:[2 <77] yes=21,no=22,missing=21
					21:leaf=-0.0174446106
					22:[2 <85] yes=27,no=28,missing=27
						27:[2 <83] yes=33,no=34,missing=33
							33:leaf=0.00550842285
							34:leaf=0.0249023438
						28:[2 <101] yes=35,no=36,missing=35
							35:leaf=-0.0104717677
							36:leaf=0.000557178748
booster[19]:
0:[2 <233] yes=1,no=2,missing=1
	1:[2 <231] yes=3,no=4,missing=3
		3:[2 <223] yes=7,no=8,missing=7
			7:[2 <221] yes=11,no=12,missing=11
				11:[2 <215] yes=19,no=20,missing=19
					19:[2 <213] yes=25,no=26,missing=25
						25:[2 <143] yes=33,no=34,missing=33
							33:leaf=-0.000280970999
							34:leaf=0.00174162118
						26:leaf=0.0174942017
					20:[2 <217] yes=27,no=28,missing=27
						27:leaf=-0.015411377
						28:[2 <219] yes=35,no=36,missing=35
							35:leaf=0.00423812866
							36:leaf=-0.00212860107
				12:leaf=0.0163230896
			8:[2 <225] yes=13,no=14,missing=13
				13:leaf=-0.020526886
				14:[2 <229] yes=21,no=22,missing=21
					21:leaf=-0.000897725404
					22:leaf=0.000175476074
		4:leaf=0.0241241455
	2:[2 <235] yes=5,no=6,missing=5
		5:leaf=-0.0252342224
		6:[2 <239] yes=9,no=10,missing=9
			9:[2 <237] yes=15,no=16,missing=15
				15:leaf=-0.000133514404
				16:leaf=0.012172699
			10:[2 <241] yes=17,no=18,missing=17
				17:leaf=-0.0110855103
				18:[2 <247] yes=23,no=24,missing=23
					23:[2 <245] yes=29,no=30,missing=29
						29:leaf=0.000213623047
						30:leaf=0.00970458984
					24:[2 <267] yes=31,no=32,missing=31
						31:[2 <259] yes=37,no=38,missing=37
							37:leaf=-0.000573294528
							38:leaf=-0.00903015118
						32:[2 <271] yes=39,no=40,missing=39
							39:leaf=0.00528462743
							40:leaf=-0.000444495148
booster[20]:
0:[2 <119] yes=1,no=2,missing=1
	1:[2 <117] yes=3,no=4,missing=3
		3:[2 <107] yes=7,no=8,missing=7
			7:[2 <105] yes=11,no=12,missing=11
				11:[2 <99] yes=17,no=18,missing=17
					17:[2 <95] yes=23,no=24,missing=23
						23:[2 <91] yes=33,no=34,missing=33
							33:leaf=0.000831348298
							34:leaf=-0.0109329224
						24:[2 <97] yes=35,no=36,missing=35
							35:leaf=0.00645446777
							36:leaf=0.0244026184
					18:[2 <101] yes=25,no=26,missing=25
						25:leaf=-0.0241889954
						26:[2 <103] yes=37,no=38,missing=37
							37:leaf=0.0181236267
							38:leaf=-0.0125808716
				12:leaf=0.0156936646
			8:[2 <109] yes=13,no=14,missing=13
				13:leaf=-0.0133895874
				14:[2 <113] yes=19,no=20,missing=19
					19:[2 <111] yes=27,no=28,missing=27
						27:leaf=-0.00108337402
						28:leaf=0.00409698486
					20:leaf=-0.006980896
		4:leaf=0.0279045105
	2:[2 <123] yes=5,no=6,missing=5
		5:leaf=-0.013420105
		6:[2 <125] yes=9,no=10,missing=9
			9:leaf=0.0189437866
			10:[2 <127] yes=15,no=16,missing=15
				15:leaf=-0.0186538696
				16:[2 <133] yes=21,no=22,missing=21
					21:[2 <131] yes=29,no=30,missing=29
						29:[2 <129] yes=39,no=40,missing=39
							39:leaf=0.00615692139
							40:leaf=-0.00950622559
						30:leaf=0.0226325989
					22:[2 <139] yes=31,no=32,missing=31
						31:[2 <137] yes=41,no=42,missing=41
							41:leaf=-0.00486246729
							42:leaf=-0.0281486511
						32:[2 <145] yes=43,no=44,missing=43
							43:leaf=0.0128231049
							44:leaf=-0.00045580382
booster[21]:
0:[2 <359] yes=1,no=2,missing=1
	1:[2 <353] yes=3,no=4,missing=3
		3:[2 <351] yes=5,no=6,missing=5
			5:[2 <5] yes=9,no=10,missing=9
				9:[2 <1] yes=13,no=14,missing=13
					13:leaf=0.000968774315
					14:[2 <3] yes=17,no=18,missing=17
						17:leaf=-0.00878715515
						18:leaf=-0.00149154663
				10:[2 <7] yes=15,no=16,missing=15
					15:leaf=0.00988388062
					16:[2 <13] yes=19,no=20,missing=19
						19:[2 <9] yes=21,no=22,missing=21
							21:leaf=-0.000642776489
							22:leaf=-0.00577290868
						20:[2 <15] yes=23,no=24,missing=23
							23:leaf=0.0141010284
							24:leaf=-7.06509018e-05
			6:leaf=0.0113830566
		4:[2 <355] yes=7,no=8,missing=7
			7:leaf=-0.0119247437
			8:[2 <357] yes=11,no=12,missing=11
				11:leaf=0.0012512207
				12:leaf=-3.81469727e-05
	2:leaf=0.00694656372
booster[22]:
0:[2 <47] yes=1,no=2,missing=1
	1:[2 <43] yes=3,no=4,missing=3
		3:[2 <41] yes=7,no=8,missing=7
			7:[2 <35] yes=15,no=16,missing=15
				15:[2 <33] yes=25,no=26,missing=25
					25:[2 <27] yes=39,no=40,missing=39
						39:[2 <25] yes=49,no=50,missing=49
							49:leaf=-0.00152670767
							50:leaf=0.0158576965
						40:[2 <29] yes=51,no=52,missing=51
							51:leaf=-0.0142269135
							52:leaf=-0.0023587544
					26:leaf=0.0142002106
				16:[2 <37] yes=27,no=28,missing=27
					27:leaf=-0.0146617889
					28:leaf=-0.000751495361
			8:leaf=0.00922966003
		4:[2 <45] yes=9,no=10,missing=9
			9:leaf=-0.0109119415
			10:leaf=-0.0027217865
	2:[2 <125] yes=5,no=6,missing=5
		5:[2 <117] yes=11,no=12,missing=11
			11:[2 <99] yes=17,no=18,missing=17
				17:[2 <93] yes=29,no=30,missing=29
					29:[2 <91] yes=41,no=42,missing=41
						41:[2 <87] yes=53,no=54,missing=53
							53:leaf=0.000111897789
							54:leaf=0.0119425459
						42:leaf=-0.0136184692
					30:leaf=0.0118598938
				18:[2 <101] yes=31,no=32,missing=31
					31:leaf=-0.0120620728
					32:[2 <103] yes=43,no=44,missing=43
						43:leaf=0.00909423828
						44:[2 <105] yes=55,no=56,missing=55
							55:leaf=-0.00625610352
							56:leaf=-0.000178745817
			12:[2 <119] yes=19,no=20,missing=19
				19:leaf=0.0139884949
				20:[2 <123] yes=33,no=34,missing=33
					33:leaf=-0.0044275918
					34:leaf=0.00950622559
		6:[2 <143] yes=13,no=14,missing=13
			13:[2 <137] yes=21,no=22,missing=21
				21:[2 <135] yes=35,no=36,missing=35
					35:[2 <133] yes=45,no=46,missing=45
						45:[2 <131] yes=57,no=58,missing=57
							57:leaf=-0.00544929504
							58:leaf=0.0113487244
						46:leaf=-0.021232605
					36:leaf=0.0188674927
				22:leaf=-0.0144958496
			14:[2 <145] yes=23,no=24,missing=23
				23:leaf=0.0214614868
				24:[2 <147] yes=37,no=38,missing=37
					37:leaf=-0.0089263916
					38:[2 <155] yes=47,no=48,missing=47
						47:[2 <151] yes=59,no=60,missing=59
							59:leaf=-0.00124867761
							60:leaf=0.0146357222
						48:[2 <157] yes=61,no=62,missing=61
							61:leaf=-0.0177764893
							62:leaf=0.000120885161
booster[23]:
0:[2 <15] yes=1,no=2,missing=1
	1:[2 <11] yes=3,no=4,missing=3
		3:[2 <9] yes=7,no=8,missing=7
			7:[2 <5] yes=11,no=12,missing=11
				11:[2 <1] yes=17,no=18,missing=17
					17:leaf=0.00124774105
					18:[2 <3] yes=23,no=24,missing=23
						23:leaf=-0.00362968445
						24:leaf=1.71661377e-05
				12:[2 <7] yes=19,no=20,missing=19
					19:leaf=0.00570487976
					20:leaf=0.000440597534
			8:leaf=-0.0035610199
		4:leaf=0.00667572021
	2:[2 <17] yes=5,no=6,missing=5
		5:leaf=-0.0137252808
		6:[2 <21] yes=9,no=10,missing=9
			9:[2 <19] yes=13,no=14,missing=13
				13:leaf=0.0012588501
				14:leaf=0.0117721558
			10:[2 <23] yes=15,no=16,missing=15
				15:leaf=-0.0113697052
				16:[2 <27] yes=21,no=22,missing=21
					21:[2 <25] yes=25,no=26,missing=25
						25:leaf=0.00106239319
						26:leaf=0.00792884827
					22:[2 <29] yes=27,no=28,missing=27
						27:leaf=-0.00711250305
						28:[2 <31] yes=29,no=30,missing=29
							29:leaf=0.00799942017
							30:leaf=-4.15020695e-05
booster[24]:
0:[2 <297] yes=1,no=2,missing=1
	1:[2 <295] yes=3,no=4,missing=3
		3:[2 <291] yes=7,no=8,missing=7
			7:[2 <289] yes=13,no=14,missing=13
				13:[2 <287] yes=19,no=20,missing=19
					19:[2 <277] yes=27,no=28,missing=27
						27:[2 <275] yes=35,no=36,missing=35
							35:leaf=-0.000171960855
							36:leaf=0.0110435486
						28:[2 <279] yes=37,no=38,missing=37
							37:leaf=-0.00972366333
							38:leaf=-0.000238037115
					20:leaf=0.00667190552
				14:leaf=-0.0119018555
			8:leaf=0.00517018652
		4:leaf=-0.00839614868
	2:[2 <345] yes=5,no=6,missing=5
		5:[2 <343] yes=9,no=10,missing=9
			9:[2 <339] yes=15,no=16,missing=15
				15:[2 <337] yes=21,no=22,missing=21
					21:[2 <323] yes=29,no=30,missing=29
						29:[2 <317] yes=39,no=40,missing=39
							39:leaf=0.00144126196
							40:leaf=0.00295829773
						30:[2 <331] yes=41,no=42,missing=41
							41:leaf=-0.00151824951
							42:leaf=0.00120162964
					22:leaf=0.00497817993
				16:leaf=-0.00214894605
			10:leaf=0.00708007813
		6:[2 <347] yes=11,no=12,missing=11
			11:leaf=-0.00662231445
			12:[2 <353] yes=17,no=18,missing=17
				17:[2 <351] yes=23,no=24,missing=23
					23:[2 <349] yes=31,no=32,missing=31
						31:leaf=0.0018119812
						32:leaf=-0.000904083252
					24:leaf=0.00564956665
				18:[2 <355] yes=25,no=26,missing=25
					25:leaf=-0.0060043335
					26:[2 <359] yes=33,no=34,missing=33
						33:leaf=0.000348409027
						34:leaf=0.00342941284
booster[25]:
0:[2 <149] yes=1,no=2,missing=1
	1:[2 <143] yes=3,no=4,missing=3
		3:[2 <141] yes=7,no=8,missing=7
			7:[2 <135] yes=13,no=14,missing=13
				13:[2 <133] yes=21,no=22,missing=21
					21:[2 <127] yes=33,no=34,missing=33
						33:[2 <125] yes=45,no=46,missing=45
							45:leaf=0.000209579841
							46:leaf=-0.00646209717
						34:leaf=0.00491905212
					22:leaf=-0.010509491
				14:[2 <137] yes=23,no=24,missing=23
					23:leaf=0.00954055786
					24:[2 <139] yes=35,no=36,missing=35
						35:leaf=-0.00668716431
						36:leaf=0.00631332397
			8:leaf=-0.0065536499
		4:[2 <147] yes=9,no=10,missing=9
			9:[2 <145] yes=15,no=16,missing=15
				15:leaf=0.0108375549
				16:leaf=-0.00435638428
			10:leaf=0.013092041
	2:[2 <151] yes=5,no=6,missing=5
		5:leaf=-0.0135002136
		6:[2 <189] yes=11,no=12,missing=11
			11:[2 <181] yes=17,no=18,missing=17
				17:[2 <173] yes=25,no=26,missing=25
					25:[2 <155] yes=37,no=38,missing=37
						37:[2 <153] yes=47,no=48,missing=47
							47:leaf=-0.00221252441
							48:leaf=0.00974655151
						38:[2 <163] yes=49,no=50,missing=49
							49:leaf=-0.00736846915
							50:leaf=9.66389998e-05
					26:[2 <175] yes=39,no=40,missing=39
						39:leaf=0.00240707397
						40:leaf=0.00908660889
				18:[2 <183] yes=27,no=28,missing=27
					27:leaf=-0.0165176392
					28:leaf=-0.00662612915
			12:[2 <207] yes=19,no=20,missing=19
				19:[2 <205] yes=29,no=30,missing=29
					29:[2 <201] yes=41,no=42,missing=41
						41:[2 <191] yes=51,no=52,missing=51
							51:leaf=0.000331878662
							52:leaf=0.00371932983
						42:[2 <203] yes=53,no=54,missing=53
							53:leaf=-0.00323104858
							54:leaf=-0.000202178955
					30:leaf=0.0100975037
				20:[2 <209] yes=31,no=32,missing=31
					31:leaf=-0.0135383606
					32:[2 <215] yes=43,no=44,missing=43
						43:[2 <213] yes=55,no=56,missing=55
							55:leaf=0.00256347656
							56:leaf=0.00905609131
						44:[2 <217] yes=57,no=58,missing=57
							57:leaf=-0.007396698
							58:leaf=0.00010054079
booster[26]:
0:[2 <73] yes=1,no=2,missing=1
	1:[2 <71] yes=3,no=4,missing=3
		3:[2 <69] yes=7,no=8,missing=7
			7:[2 <67] yes=13,no=14,missing=13
				13:[2 <65] yes=19,no=20,missing=19
					19:[2 <61] yes=25,no=26,missing=25
						25:[2 <59] yes=29,no=30,missing=29
							29:leaf=-0.000386856293
							30:leaf=0.00704193115
						26:[2 <63] yes=31,no=32,missing=31
							31:leaf=-0.00886535645
							32:leaf=-0.00126647949
					20:leaf=0.00611114502
				14:leaf=-0.00790405273
			8:leaf=0.0125846863
		4:leaf=-0.0150604248
	2:[2 <81] yes=5,no=6,missing=5
		5:[2 <79] yes=9,no=10,missing=9
			9:[2 <75] yes=15,no=16,missing=15
				15:leaf=0.0119972229
				16:[2 <77] yes=21,no=22,missing=21
					21:leaf=-0.00901412964
					22:leaf=0.00392150879
			10:leaf=0.0164604187
		6:[2 <83] yes=11,no=12,missing=11
			11:leaf=-0.0185089111
			12:[2 <85] yes=17,no=18,missing=17
				17:leaf=0.0121574402
				18:[2 <87] yes=23,no=24,missing=23
					23:leaf=-0.0134735107
					24:[2 <161] yes=27,no=28,missing=27
						27:[2 <157] yes=33,no=34,missing=33
							33:leaf=0.000387403707
							34:leaf=0.00847371388
						28:[2 <163] yes=35,no=36,missing=35
							35:leaf=-0.0112953186
							36:leaf=-9.93347203e-05
booster[27]:
0:[2 <15] yes=1,no=2,missing=1
	1:[2 <13] yes=3,no=4,missing=3
		3:[2 <9] yes=7,no=8,missing=7
			7:[2 <5] yes=11,no=12,missing=11
				11:[2 <1] yes=17,no=18,missing=17
					17:leaf=0.000798489142
					18:[2 <3] yes=23,no=24,missing=23
						23:leaf=-0.00164031982
						24:leaf=0.000183105469
				12:[2 <7] yes=19,no=20,missing=19
					19:leaf=0.00302696228
					20:leaf=0.000392913818
			8:leaf=-0.00171407068
		4:leaf=0.00465011597
	2:[2 <17] yes=5,no=6,missing=5
		5:leaf=-0.00668907166
		6:[2 <21] yes=9,no=10,missing=9
			9:[2 <19] yes=13,no=14,missing=13
				13:leaf=0.000802993774
				14:leaf=0.00605964661
			10:[2 <23] yes=15,no=16,missing=15
				15:leaf=-0.00551223755
				16:[2 <27] yes=21,no=22,missing=21
					21:[2 <25] yes=25,no=26,missing=25
						25:leaf=0.000703811646
						26:leaf=0.00413703918
					22:[2 <33] yes=27,no=28,missing=27
						27:[2 <31] yes=29,no=30,missing=29
							29:leaf=0.000526428223
							30:leaf=-0.00898551941
						28:[2 <35] yes=31,no=32,missing=31
							31:leaf=0.00729560852
							32:leaf=-8.36442123e-05
booster[28]:
0:[2 <47] yes=1,no=2,missing=1
	1:[2 <43] yes=3,no=4,missing=3
		3:[2 <41] yes=7,no=8,missing=7
			7:[2 <35] yes=13,no=14,missing=13
				13:[2 <33] yes=17,no=18,missing=17
					17:[2 <31] yes=25,no=26,missing=25
						25:[2 <29] yes=31,no=32,missing=31
							31:leaf=-0.000131292545
							32:leaf=0.0039100647
						26:leaf=-0.00449180603
					18:leaf=0.00364875793
				14:[2 <37] yes=19,no=20,missing=19
					19:leaf=-0.00709342957
					20:leaf=6.48498535e-05
			8:leaf=0.00485229492
		4:[2 <45] yes=9,no=10,missing=9
			9:leaf=-0.00521850586
			10:leaf=-0.00112533569
	2:[2 <49] yes=5,no=6,missing=5
		5:leaf=0.00792312622
		6:[2 <51] yes=11,no=12,missing=11
			11:leaf=-0.00391769409
			12:[2 <57] yes=15,no=16,missing=15
				15:[2 <55] yes=21,no=22,missing=21
					21:[2 <53] yes=27,no=28,missing=27
						27:leaf=0.00161361694
						28:leaf=-0.00310516357
					22:leaf=0.00779724121
				16:[2 <59] yes=23,no=24,missing=23
					23:leaf=-0.00496673584
					24:[2 <61] yes=29,no=30,missing=29
						29:leaf=0.00356292725
						30:[2 <63] yes=33,no=34,missing=33
							33:leaf=-0.00439071655
							34:leaf=5.26936856e-05
booster[29]:
0:[2 <81] yes=1,no=2,missing=1
	1:[2 <77] yes=3,no=4,missing=3
		3:[2 <75] yes=7,no=8,missing=7
			7:[2 <73] yes=13,no=14,missing=13
				13:[2 <71] yes=17,no=18,missing=17
					17:[2 <69] yes=21,no=22,missing=21
						21:[2 <67] yes=27,no=28,missing=27
							27:leaf=0.000108962653
							28:leaf=-0.00393676758
						22:leaf=0.00630950928
					18:leaf=-0.00751495361
				14:leaf=0.00601577759
			8:leaf=-0.00449371338
		4:[2 <79] yes=9,no=10,missing=9
			9:leaf=0.00197601318
			10:leaf=0.00824356079
	2:[2 <83] yes=5,no=6,missing=5
		5:leaf=-0.00923919678
		6:[2 <85] yes=11,no=12,missing=11
			11:leaf=0.00609588623
			12:[2 <87] yes=15,no=16,missing=15
				15:leaf=-0.00672149658
				16:[2 <91] yes=19,no=20,missing=19
					19:[2 <89] yes=23,no=24,missing=23
						23:leaf=0.000843048096
						24:leaf=0.00477981567
					20:[2 <93] yes=25,no=26,missing=25
						25:leaf=-0.00698471069
						26:[2 <107] yes=29,no=30,missing=29
							29:leaf=0.00201416016
							30:leaf=-9.23275948e-05
booster[30]:
0:[2 <209] yes=1,no=2,missing=1
	1:[2 <207] yes=3,no=4,missing=3
		3:[2 <205] yes=7,no=8,missing=7
			7:[2 <181] yes=13,no=14,missing=13
				13:[2 <179] yes=19,no=20,missing=19
					19:[2 <149] yes=31,no=32,missing=31
						31:[2 <143] yes=41,no=42,missing=41
							41:leaf=-0.000188426566
							42:leaf=0.00469207764
						32:[2 <151] yes=43,no=44,missing=43
							43:leaf=-0.00688171387
							44:leaf=-0.000120544435
					20:leaf=0.00472640991
				14:[2 <183] yes=21,no=22,missing=21
					21:leaf=-0.00814819336
					22:[2 <189] yes=33,no=34,missing=33
						33:leaf=-0.00148773193
						34:[2 <201] yes=45,no=46,missing=45
							45:leaf=0.000771658786
							46:leaf=-0.000996907591
			8:leaf=0.0051612854
		4:leaf=-0.00665664673
	2:[2 <223] yes=5,no=6,missing=5
		5:[2 <221] yes=9,no=10,missing=9
			9:[2 <215] yes=15,no=16,missing=15
				15:[2 <213] yes=23,no=24,missing=23
					23:[2 <211] yes=35,no=36,missing=35
						35:leaf=0.00234222412
						36:leaf=-0.000839233398
					24:leaf=0.00463867188
				16:[2 <217] yes=25,no=26,missing=25
					25:leaf=-0.00358963013
					26:[2 <219] yes=37,no=38,missing=37
						37:leaf=0.00248718262
						38:leaf=-0.000694274902
			10:leaf=0.00853347778
		6:[2 <225] yes=11,no=12,missing=11
			11:leaf=-0.00989532471
			12:[2 <233] yes=17,no=18,missing=17
				17:[2 <231] yes=27,no=28,missing=27
					27:leaf=0.000375747681
					28:leaf=0.0124320984
				18:[2 <235] yes=29,no=30,missing=29
					29:leaf=-0.0122451782
					30:[2 <239] yes=39,no=40,missing=39
						39:[2 <237] yes=47,no=48,missing=47
							47:leaf=0.000305175781
							48:leaf=0.00645446777
						40:[2 <241] yes=49,no=50,missing=49
							49:leaf=-0.00517272949
							50:leaf=0.000167471459
booster[31]:
0:[2 <265] yes=1,no=2,missing=1
	1:[2 <261] yes=3,no=4,missing=3
		3:[2 <259] yes=7,no=8,missing=7
			7:[2 <257] yes=13,no=14,missing=13
				13:[2 <255] yes=19,no=20,missing=19
					19:[2 <253] yes=23,no=24,missing=23
						23:[2 <247] yes=29,no=30,missing=29
							29:leaf=6.19680068e-05
							30:leaf=-0.00454521179
						24:leaf=0.00840759277
					20:leaf=-0.00912094116
				14:leaf=0.0112304688
			8:leaf=-0.00825500488
		4:leaf=0.00759887695
	2:[2 <275] yes=5,no=6,missing=5
		5:[2 <267] yes=9,no=10,missing=9
			9:leaf=-0.00650787354
			10:[2 <271] yes=15,no=16,missing=15
				15:leaf=0.00214131665
				16:leaf=-0.00545756007
		6:[2 <277] yes=11,no=12,missing=11
			11:leaf=0.00550079346
			12:[2 <279] yes=17,no=18,missing=17
				17:leaf=-0.0048828125
				18:[2 <299] yes=21,no=22,missing=21
					21:[2 <289] yes=25,no=26,missing=25
						25:[2 <287] yes=31,no=32,missing=31
							31:leaf=-8.54492173e-05
							32:leaf=0.00331115723
						26:[2 <291] yes=33,no=34,missing=33
							33:leaf=-0.00597381592
							34:leaf=-0.00074920652
					22:[2 <345] yes=27,no=28,missing=27
						27:[2 <343] yes=35,no=36,missing=35
							35:leaf=0.000270677643
							36:leaf=0.00351715088
						28:[2 <347] yes=37,no=38,missing=37
							37:leaf=-0.00333404541
							38:leaf=0.000500679016
booster[32]:
0:[2 <15] yes=1,no=2,missing=1
	1:[2 <13] yes=3,no=4,missing=3
		3:[2 <9] yes=7,no=8,missing=7
			7:[2 <5] yes=11,no=12,missing=11
				11:leaf=-5.50049299e-05
				12:leaf=0.00123723352
			8:leaf=-0.000475565583
		4:leaf=0.00239753723
	2:[2 <17] yes=5,no=6,missing=5
		5:leaf=-0.00327301025
		6:[2 <21] yes=9,no=10,missing=9
			9:[2 <19] yes=13,no=14,missing=13
				13:leaf=0.000473022461
				14:leaf=0.00310325623
			10:[2 <23] yes=15,no=16,missing=15
				15:leaf=-0.00268363953
				16:[2 <27] yes=17,no=18,missing=17
					17:leaf=0.00170898438
					18:[2 <29] yes=19,no=20,missing=19
						19:leaf=-0.00357437134
						20:[2 <31] yes=21,no=22,missing=21
							21:leaf=0.00196266174
							22:leaf=-6.15177414e-05
booster[33]:
0:[2 <195] yes=1,no=2,missing=1
	1:[2 <181] yes=3,no=4,missing=3
		3:[2 <169] yes=7,no=8,missing=7
			7:[2 <161] yes=15,no=16,missing=15
				15:[2 <157] yes=21,no=22,missing=21
					21:[2 <155] yes=29,no=30,missing=29
						29:[2 <153] yes=35,no=36,missing=35
							35:leaf=-0.000113035232
							36:leaf=0.00479888916
						30:leaf=-0.00516891479
					22:leaf=0.00298563647
				16:[2 <163] yes=23,no=24,missing=23
					23:leaf=-0.00552368164
					24:leaf=-0.000480651855
			8:leaf=0.00167628692
		4:[2 <183] yes=9,no=10,missing=9
			9:leaf=-0.00407409668
			10:leaf=-0.0006147112
	2:[2 <259] yes=5,no=6,missing=5
		5:[2 <257] yes=11,no=12,missing=11
			11:[2 <255] yes=17,no=18,missing=17
				17:[2 <249] yes=25,no=26,missing=25
					25:[2 <247] yes=31,no=32,missing=31
						31:[2 <245] yes=37,no=38,missing=37
							37:leaf=0.000292264507
							38:leaf=0.00513839722
						32:leaf=-0.00692749023
					26:leaf=0.00449180603
				18:leaf=-0.00452804565
			12:leaf=0.00564575195
		6:[2 <261] yes=13,no=14,missing=13
			13:leaf=-0.00409698486
			14:[2 <265] yes=19,no=20,missing=19
				19:leaf=0.00257364917
				20:[2 <267] yes=27,no=28,missing=27
					27:leaf=-0.00322341919
					28:[2 <359] yes=33,no=34,missing=33
						33:[2 <353] yes=39,no=40,missing=39
							39:leaf=4.19616699e-05
							40:leaf=-0.00178146362
						34:leaf=0.00147247314
booster[34]:
0:[2 <81] yes=1,no=2,missing=1
	1:[2 <77] yes=3,no=4,missing=3
		3:[2 <75] yes=7,no=8,missing=7
			7:[2 <73] yes=11,no=12,missing=11
				11:[2 <71] yes=15,no=16,missing=15
					15:[2 <69] yes=21,no=22,missing=21
						21:[2 <67] yes=29,no=30,missing=29
							29:leaf=0.000177696653
							30:leaf=-0.0018157959
						22:leaf=0.00330734253
					16:leaf=-0.00360488892
				12:leaf=0.00316238403
			8:leaf=-0.0020942688
		4:leaf=0.00361124682
	2:[2 <83] yes=5,no=6,missing=5
		5:leaf=-0.0044670105
		6:[2 <85] yes=9,no=10,missing=9
			9:leaf=0.00320053101
			10:[2 <101] yes=13,no=14,missing=13
				13:[2 <99] yes=17,no=18,missing=17
					17:[2 <97] yes=23,no=24,missing=23
						23:[2 <91] yes=31,no=32,missing=31
							31:leaf=-4.38690186e-05
							32:leaf=-0.00288963318
						24:leaf=0.00527572632
					18:leaf=-0.00706100464
				14:[2 <107] yes=19,no=20,missing=19
					19:[2 <105] yes=25,no=26,missing=25
						25:[2 <103] yes=33,no=34,missing=33
							33:leaf=0.00351715088
							34:leaf=-0.00415802002
						26:leaf=0.00693893433
					20:[2 <109] yes=27,no=28,missing=27
						27:leaf=-0.00654983521
						28:[2 <125] yes=35,no=36,missing=35
							35:leaf=0.00182681612
							36:leaf=-0.00017053941
booster[35]:
0:[2 <335] yes=1,no=2,missing=1
	1:[2 <47] yes=3,no=4,missing=3
		3:[2 <43] yes=7,no=8,missing=7
			7:[2 <41] yes=13,no=14,missing=13
				13:[2 <35] yes=19,no=20,missing=19
					19:[2 <33] yes=25,no=26,missing=25
						25:[2 <31] yes=35,no=36,missing=35
							35:leaf=-1.26127889e-05
							36:leaf=-0.00223922729
						26:leaf=0.00183105469
					20:[2 <37] yes=27,no=28,missing=27
						27:leaf=-0.00354003906
						28:leaf=2.92460118e-05
				14:leaf=0.00243186951
			8:leaf=-0.00210698438
		4:[2 <49] yes=9,no=10,missing=9
			9:leaf=0.00397109985
			10:[2 <51] yes=15,no=16,missing=15
				15:leaf=-0.0019493103
				16:[2 <57] yes=21,no=22,missing=21
					21:[2 <55] yes=29,no=30,missing=29
						29:[2 <53] yes=37,no=38,missing=37
							37:leaf=0.000820159912
							38:leaf=-0.0015411377
						30:leaf=0.0039100647
					22:[2 <59] yes=31,no=32,missing=31
						31:leaf=-0.00247192383
						32:[2 <61] yes=39,no=40,missing=39
							39:leaf=0.00179290771
							40:leaf=-8.55266189e-05
	2:[2 <339] yes=5,no=6,missing=5
		5:leaf=0.00204467773
		6:[2 <355] yes=11,no=12,missing=11
			11:[2 <353] yes=17,no=18,missing=17
				17:[2 <351] yes=23,no=24,missing=23
					23:[2 <345] yes=33,no=34,missing=33
						33:[2 <343] yes=41,no=42,missing=41
							41:leaf=-0.000796000182
							42:leaf=0.00185012817
						34:[2 <347] yes=43,no=44,missing=43
							43:leaf=-0.00157546997
							44:leaf=5.84920235e-05
					24:leaf=0.00263977051
				18:leaf=-0.00227355957
			12:leaf=0.00122642517
booster[36]:
0:[2 <117] yes=1,no=2,missing=1
	1:[2 <107] yes=3,no=4,missing=3
		3:[2 <105] yes=7,no=8,missing=7
			7:[2 <99] yes=11,no=12,missing=11
				11:[2 <97] yes=15,no=16,missing=15
					15:[2 <95] yes=21,no=22,missing=21
						21:[2 <93] yes=29,no=30,missing=29
							29:leaf=6.4451001e-06
							30:leaf=0.00275039673
						22:leaf=-0.00221252441
					16:leaf=0.00267791748
				12:[2 <101] yes=17,no=18,missing=17
					17:leaf=-0.0034866333
					18:[2 <103] yes=23,no=24,missing=23
						23:leaf=0.00180053711
						24:leaf=-0.00203704834
			8:leaf=0.00351333618
		4:leaf=-0.00270462036
	2:[2 <119] yes=5,no=6,missing=5
		5:leaf=0.00614929199
		6:[2 <123] yes=9,no=10,missing=9
			9:leaf=-0.00260670972
			10:[2 <125] yes=13,no=14,missing=13
				13:leaf=0.00390625
				14:[2 <135] yes=19,no=20,missing=19
					19:[2 <133] yes=25,no=26,missing=25
						25:[2 <131] yes=31,no=32,missing=31
							31:leaf=-0.00183105469
							32:leaf=0.00346755981
						26:leaf=-0.00510787964
					20:[2 <137] yes=27,no=28,missing=27
						27:leaf=0.00491714478
						28:[2 <139] yes=33,no=34,missing=33
							33:leaf=-0.00319671631
							34:leaf=7.62258278e-05
booster[37]:
0:[2 <233] yes=1,no=2,missing=1
	1:[2 <231] yes=3,no=4,missing=3
		3:[2 <223] yes=7,no=8,missing=7
			7:[2 <221] yes=11,no=12,missing=11
				11:[2 <141] yes=19,no=20,missing=19
					19:[2 <139] yes=23,no=24,missing=23
						23:[2 <129] yes=31,no=32,missing=31
							31:leaf=0.000188735532
							32:leaf=-0.00108210242
						24:leaf=0.00326156616
					20:[2 <147] yes=25,no=26,missing=25
						25:[2 <145] yes=33,no=34,missing=33
							33:leaf=-5.84920235e-05
							34:leaf=-0.00451278687
						26:[2 <149] yes=35,no=36,missing=35
							35:leaf=0.00421142578
							36:leaf=-0.000200013863
				12:leaf=0.00420761108
			8:[2 <225] yes=13,no=14,missing=13
				13:leaf=-0.00500488281
				14:leaf=9.53674316e-06
		4:leaf=0.00615692139
	2:[2 <235] yes=5,no=6,missing=5
		5:leaf=-0.00617980957
		6:[2 <239] yes=9,no=10,missing=9
			9:[2 <237] yes=15,no=16,missing=15
				15:leaf=9.53674316e-05
				16:leaf=0.00317001343
			10:[2 <241] yes=17,no=18,missing=17
				17:leaf=-0.00264358521
				18:[2 <247] yes=21,no=22,missing=21
					21:[2 <245] yes=27,no=28,missing=27
						27:leaf=0.000376383454
						28:leaf=0.00265884399
					22:[2 <249] yes=29,no=30,missing=29
						29:leaf=-0.00337600708
						30:[2 <259] yes=37,no=38,missing=37
							37:leaf=0.00108083093
							38:leaf=-7.87881727e-05
booster[38]:
0:[2 <65] yes=1,no=2,missing=1
	1:[2 <61] yes=3,no=4,missing=3
		3:[2 <45] yes=7,no=8,missing=7
			7:[2 <21] yes=11,no=12,missing=11
				11:[2 <19] yes=19,no=20,missing=19
					19:[2 <15] yes=29,no=30,missing=29
						29:[2 <13] yes=39,no=40,missing=39
							39:leaf=-0.000128301297
							40:leaf=0.00107574463
						30:[2 <17] yes=41,no=42,missing=41
							41:leaf=-0.00176048279
							42:leaf=0.000112533569
					20:leaf=0.00142669678
				12:[2 <43] yes=21,no=22,missing=21
					21:[2 <41] yes=31,no=32,missing=31
						31:leaf=-0.000792763429
						32:leaf=0.00111961365
					22:leaf=-0.00164794922
			8:[2 <49] yes=13,no=14,missing=13
				13:leaf=0.00152206421
				14:[2 <55] yes=23,no=24,missing=23
					23:leaf=-0.000816345215
					24:[2 <57] yes=33,no=34,missing=33
						33:leaf=0.00185775757
						34:[2 <59] yes=43,no=44,missing=43
							43:leaf=-0.00133514404
							44:leaf=0.000797271729
		4:leaf=-0.00193786621
	2:[2 <67] yes=5,no=6,missing=5
		5:leaf=0.00302505493
		6:[2 <87] yes=9,no=10,missing=9
			9:[2 <85] yes=15,no=16,missing=15
				15:[2 <83] yes=25,no=26,missing=25
					25:[2 <81] yes=35,no=36,missing=35
						35:[2 <79] yes=45,no=46,missing=45
							45:leaf=-0.000435965398
							46:leaf=0.00241470337
						36:leaf=-0.00229263306
					26:leaf=0.00154495239
				16:leaf=-0.00324249268
			10:[2 <91] yes=17,no=18,missing=17
				17:leaf=0.00203450513
				18:[2 <93] yes=27,no=28,missing=27
					27:leaf=-0.001953125
					28:[2 <141] yes=37,no=38,missing=37
						37:[2 <127] yes=47,no=48,missing=47
							47:leaf=9.74867089e-06
							48:leaf=0.00138473511
						38:[2 <143] yes=49,no=50,missing=49
							49:leaf=-0.00313949585
							50:leaf=5.45154908e-05
booster[39]:
0:[2 <129] yes=1,no=2,missing=1
	1:[2 <127] yes=3,no=4,missing=3
		3:[2 <125] yes=7,no=8,missing=7
			7:[2 <117] yes=11,no=12,missing=11
				11:[2 <113] yes=15,no=16,missing=15
					15:[2 <111] yes=21,no=22,missing=21
						21:[2 <107] yes=27,no=28,missing=27
							27:leaf=4.02669793e-05
							28:leaf=-0.00132751465
						22:leaf=0.00257492065
					16:leaf=-0.00161997473
				12:[2 <119] yes=17,no=18,missing=17
					17:leaf=0.00297546387
					18:[2 <123] yes=23,no=24,missing=23
						23:leaf=-0.000999450684
						24:leaf=0.00185394287
			8:leaf=-0.00226974487
		4:leaf=0.00375366211
	2:[2 <131] yes=5,no=6,missing=5
		5:leaf=-0.00344085693
		6:[2 <133] yes=9,no=10,missing=9
			9:leaf=0.00157928467
			10:[2 <135] yes=13,no=14,missing=13
				13:leaf=-0.00270462036
				14:[2 <137] yes=19,no=20,missing=19
					19:leaf=0.00230789185
					20:[2 <165] yes=25,no=26,missing=25
						25:[2 <161] yes=29,no=30,missing=29
							29:leaf=-0.000267615687
							30:leaf=-0.00201416016
						26:[2 <233] yes=31,no=32,missing=31
							31:leaf=0.000382559636
							32:leaf=-0.00013016921
